Language model created by QuickLM on Sat May 26 06:15:32 EDT 2018
Copyright (c) 1996-2010 Carnegie Mellon University and Alexander I. Rudnicky

The model is in standard ARPA format, designed by Doug Paul while he was at MITRE.

The code that was used to produce this language model is available in Open Source.
Please visit http://www.speech.cs.cmu.edu/tools/ for more information

The (fixed) discount mass is 0.5. The backoffs are computed using the ratio method.
This model based on a corpus of 26 sentences and 28 words

\data\
ngram 1=28
ngram 2=52
ngram 3=26

\1-grams:
-0.7782 </s> -0.3010
-0.7782 <s> -0.2218
-2.1931 A -0.2218
-2.1931 B -0.2218
-2.1931 C -0.2218
-2.1931 D -0.2218
-2.1931 E -0.2218
-2.1931 F -0.2218
-2.1931 G -0.2218
-2.1931 H -0.2218
-2.1931 I -0.2218
-2.1931 J -0.2218
-2.1931 K -0.2218
-2.1931 L -0.2218
-2.1931 M -0.2218
-2.1931 N -0.2218
-2.1931 O -0.2218
-2.1931 P -0.2218
-2.1931 Q -0.2218
-2.1931 R -0.2218
-2.1931 S -0.2218
-2.1931 T -0.2218
-2.1931 U -0.2218
-2.1931 V -0.2218
-2.1931 W -0.2218
-2.1931 X -0.2218
-2.1931 Y -0.2218
-2.1931 Z -0.2218

\2-grams:
-1.7160 <s> A 0.0000
-1.7160 <s> B 0.0000
-1.7160 <s> C 0.0000
-1.7160 <s> D 0.0000
-1.7160 <s> E 0.0000
-1.7160 <s> F 0.0000
-1.7160 <s> G 0.0000
-1.7160 <s> H 0.0000
-1.7160 <s> I 0.0000
-1.7160 <s> J 0.0000
-1.7160 <s> K 0.0000
-1.7160 <s> L 0.0000
-1.7160 <s> M 0.0000
-1.7160 <s> N 0.0000
-1.7160 <s> O 0.0000
-1.7160 <s> P 0.0000
-1.7160 <s> Q 0.0000
-1.7160 <s> R 0.0000
-1.7160 <s> S 0.0000
-1.7160 <s> T 0.0000
-1.7160 <s> U 0.0000
-1.7160 <s> V 0.0000
-1.7160 <s> W 0.0000
-1.7160 <s> X 0.0000
-1.7160 <s> Y 0.0000
-1.7160 <s> Z 0.0000
-0.3010 A </s> -0.3010
-0.3010 B </s> -0.3010
-0.3010 C </s> -0.3010
-0.3010 D </s> -0.3010
-0.3010 E </s> -0.3010
-0.3010 F </s> -0.3010
-0.3010 G </s> -0.3010
-0.3010 H </s> -0.3010
-0.3010 I </s> -0.3010
-0.3010 J </s> -0.3010
-0.3010 K </s> -0.3010
-0.3010 L </s> -0.3010
-0.3010 M </s> -0.3010
-0.3010 N </s> -0.3010
-0.3010 O </s> -0.3010
-0.3010 P </s> -0.3010
-0.3010 Q </s> -0.3010
-0.3010 R </s> -0.3010
-0.3010 S </s> -0.3010
-0.3010 T </s> -0.3010
-0.3010 U </s> -0.3010
-0.3010 V </s> -0.3010
-0.3010 W </s> -0.3010
-0.3010 X </s> -0.3010
-0.3010 Y </s> -0.3010
-0.3010 Z </s> -0.3010

\3-grams:
-0.3010 <s> A </s>
-0.3010 <s> B </s>
-0.3010 <s> C </s>
-0.3010 <s> D </s>
-0.3010 <s> E </s>
-0.3010 <s> F </s>
-0.3010 <s> G </s>
-0.3010 <s> H </s>
-0.3010 <s> I </s>
-0.3010 <s> J </s>
-0.3010 <s> K </s>
-0.3010 <s> L </s>
-0.3010 <s> M </s>
-0.3010 <s> N </s>
-0.3010 <s> O </s>
-0.3010 <s> P </s>
-0.3010 <s> Q </s>
-0.3010 <s> R </s>
-0.3010 <s> S </s>
-0.3010 <s> T </s>
-0.3010 <s> U </s>
-0.3010 <s> V </s>
-0.3010 <s> W </s>
-0.3010 <s> X </s>
-0.3010 <s> Y </s>
-0.3010 <s> Z </s>

\end\
