Language model created by QuickLM on Wed Mar 14 15:46:28 EDT 2018
Copyright (c) 1996-2010 Carnegie Mellon University and Alexander I. Rudnicky

The model is in standard ARPA format, designed by Doug Paul while he was at MITRE.

The code that was used to produce this language model is available in Open Source.
Please visit http://www.speech.cs.cmu.edu/tools/ for more information

The (fixed) discount mass is 0.5. The backoffs are computed using the ratio method.
This model based on a corpus of 31 sentences and 33 words

\data\
ngram 1=33
ngram 2=62
ngram 3=31

\1-grams:
-0.7782 </s> -0.3010
-0.7782 <s> -0.2218
-2.2695 A -0.2218
-2.2695 B -0.2218
-2.2695 C -0.2218
-2.2695 D -0.2218
-2.2695 E -0.2218
-2.2695 F -0.2218
-2.2695 G -0.2218
-2.2695 H -0.2218
-2.2695 HANGMAN -0.2218
-2.2695 I -0.2218
-2.2695 J -0.2218
-2.2695 K -0.2218
-2.2695 L -0.2218
-2.2695 M -0.2218
-2.2695 N -0.2218
-2.2695 O -0.2218
-2.2695 P -0.2218
-2.2695 Q -0.2218
-2.2695 QUIT -0.2218
-2.2695 R -0.2218
-2.2695 S -0.2218
-2.2695 SPEAK -0.2218
-2.2695 START -0.2218
-2.2695 STOP -0.2218
-2.2695 T -0.2218
-2.2695 U -0.2218
-2.2695 V -0.2218
-2.2695 W -0.2218
-2.2695 X -0.2218
-2.2695 Y -0.2218
-2.2695 Z -0.2218

\2-grams:
-1.7924 <s> A 0.0000
-1.7924 <s> B 0.0000
-1.7924 <s> C 0.0000
-1.7924 <s> D 0.0000
-1.7924 <s> E 0.0000
-1.7924 <s> F 0.0000
-1.7924 <s> G 0.0000
-1.7924 <s> H 0.0000
-1.7924 <s> HANGMAN 0.0000
-1.7924 <s> I 0.0000
-1.7924 <s> J 0.0000
-1.7924 <s> K 0.0000
-1.7924 <s> L 0.0000
-1.7924 <s> M 0.0000
-1.7924 <s> N 0.0000
-1.7924 <s> O 0.0000
-1.7924 <s> P 0.0000
-1.7924 <s> Q 0.0000
-1.7924 <s> QUIT 0.0000
-1.7924 <s> R 0.0000
-1.7924 <s> S 0.0000
-1.7924 <s> SPEAK 0.0000
-1.7924 <s> START 0.0000
-1.7924 <s> STOP 0.0000
-1.7924 <s> T 0.0000
-1.7924 <s> U 0.0000
-1.7924 <s> V 0.0000
-1.7924 <s> W 0.0000
-1.7924 <s> X 0.0000
-1.7924 <s> Y 0.0000
-1.7924 <s> Z 0.0000
-0.3010 A </s> -0.3010
-0.3010 B </s> -0.3010
-0.3010 C </s> -0.3010
-0.3010 D </s> -0.3010
-0.3010 E </s> -0.3010
-0.3010 F </s> -0.3010
-0.3010 G </s> -0.3010
-0.3010 H </s> -0.3010
-0.3010 HANGMAN </s> -0.3010
-0.3010 I </s> -0.3010
-0.3010 J </s> -0.3010
-0.3010 K </s> -0.3010
-0.3010 L </s> -0.3010
-0.3010 M </s> -0.3010
-0.3010 N </s> -0.3010
-0.3010 O </s> -0.3010
-0.3010 P </s> -0.3010
-0.3010 Q </s> -0.3010
-0.3010 QUIT </s> -0.3010
-0.3010 R </s> -0.3010
-0.3010 S </s> -0.3010
-0.3010 SPEAK </s> -0.3010
-0.3010 START </s> -0.3010
-0.3010 STOP </s> -0.3010
-0.3010 T </s> -0.3010
-0.3010 U </s> -0.3010
-0.3010 V </s> -0.3010
-0.3010 W </s> -0.3010
-0.3010 X </s> -0.3010
-0.3010 Y </s> -0.3010
-0.3010 Z </s> -0.3010

\3-grams:
-0.3010 <s> A </s>
-0.3010 <s> B </s>
-0.3010 <s> C </s>
-0.3010 <s> D </s>
-0.3010 <s> E </s>
-0.3010 <s> F </s>
-0.3010 <s> G </s>
-0.3010 <s> H </s>
-0.3010 <s> HANGMAN </s>
-0.3010 <s> I </s>
-0.3010 <s> J </s>
-0.3010 <s> K </s>
-0.3010 <s> L </s>
-0.3010 <s> M </s>
-0.3010 <s> N </s>
-0.3010 <s> O </s>
-0.3010 <s> P </s>
-0.3010 <s> Q </s>
-0.3010 <s> QUIT </s>
-0.3010 <s> R </s>
-0.3010 <s> S </s>
-0.3010 <s> SPEAK </s>
-0.3010 <s> START </s>
-0.3010 <s> STOP </s>
-0.3010 <s> T </s>
-0.3010 <s> U </s>
-0.3010 <s> V </s>
-0.3010 <s> W </s>
-0.3010 <s> X </s>
-0.3010 <s> Y </s>
-0.3010 <s> Z </s>

\end\
